svm_type c_svc
kernel_type rbf
gamma 0.1
nr_class 19
total_sv 103
rho 0.0805233 0 0 0.00331265 0.000286691 -0.00209516 0 -0.0022703 -0.00230025 0.25511 -0.000100653 2.77556e-17 1.38778e-17 0.000159102 -0.00119171 0 -0.000324557 0.0912104 0 -0.0409075 -0.0338591 -0.0355959 -0.0345807 -0.0366571 -0.0401021 -0.04939 0.182738 -0.0357437 -0.0216379 -0.034337 -0.034846 -0.0365239 -0.0367896 -0.0139036 -0.085948 0 0.000196102 -0.00426067 -0.00147494 -1.38778e-17 5.55112e-17 -0.000153444 0.201861 -0.00540879 0.00929662 -0.00254181 -0.00440317 -0.00450787 -0.000320358 0.000226124 -2.77556e-17 0.00296298 0.00138983 0 2.77556e-17 0 0.000871425 0.20969 0.000401303 0.0150557 0.00315373 0.0013435 0.00118668 0.000863534 0.00217303 -2.77556e-17 -0.00396305 -0.00205225 -4.38779e-05 0 0.00263929 0.197088 -0.00504372 0.00955501 -0.00228442 -0.00421814 -0.00381755 -0.0056905 -0.0037605 0.000660105 -8.57399e-05 -0.0026209 -0.000709746 -0.00050139 0.198546 -0.00109694 0.0136068 0.00173817 -0.000198453 0.00011957 -0.00168067 0.000217639 0.00372625 0 0.00226811 2.77556e-17 0.208358 -0.000900445 0.0138239 0.00182463 2.51802e-05 0.000364967 -0.00141134 0.000930706 0.0048859 -2.77556e-17 0 0.203356 0.00086166 0.0167049 0.00474743 0.00312423 0.00311248 2.77556e-17 0.00061883 -2.77556e-17 3.3997e-05 0.209435 -0.000648021 0.0142959 0.00220732 0.000368821 0.000787386 -0.000844617 0.00113747 0.00443209 0.221035 -0.000553476 0.013958 0.00188452 0.000559081 7.27475e-05 -2.77556e-17 8.99166e-05 5.55112e-17 -0.462297 -0.211703 -0.226926 -0.232466 -0.201595 -0.32178 -0.248882 -0.292663 0 0 -0.000629128 0.000532608 5.55112e-17 0.000923973 -5.55112e-17 -0.00126949 -0.0273107 -0.0163167 0.000120309 0.00196154 1.38778e-17 0.00330033 -0.00115407 8.57358e-05 0 0.00110437 0.00188647 0 -0.000618313 0.00257719 0.000459527 0.00175905 0.00629013 -1.38778e-16 -0.088385 0
label 1 2 3 4 5 6 7 8 9 10 0 11 12 13 14 15 16 17 18
nr_sv 8 8 4 5 5 4 5 5 8 5 2 4 4 3 7 6 5 7 8
SV
0 0 0 0 0.4990823664361997 0 0 0 0 0 1.168312943394323 1.154952125640955 1.097263241643701 1.08991375795833 0.8013956857002328 3.207802179984888 1.942500322452986 4 1:0.04024199 2:-2.6962133 3:-1.0060498 4:-0.68411383 
0 0 0 0 0 0 0 0 1.085908535027702 0 0 0 0 0 0 0 0 0 1:0.16341352 2:-2.8188831 3:-0.85792096 4:-0.81706758 
0 0 0 0 0 0 0 0 0 0 0 0 0 0 0.009212873824845735 0 0.2328889263485699 4 1:0.040751001 2:-2.8118191 3:-1.018775 4:-0.73351801 
0 0 0 0 0 0 0 0 0 0 0 0 0 0 0 0 0 1.791421852833146 1:0.12329924 2:-2.8358825 3:-0.98639392 4:-0.65759595 
0 0 0 0 0 0 0 0 0 0 0 0 0 0 0 0 0 4 1:0.079522203 2:-2.743516 3:-0.95426644 4:-0.67593873 
0 0 0 0 0 0 0 0 0 0 0 0 0 0 0 0 0 4 1:0.12121831 2:-2.7476149 3:-0.88893424 4:-0.72730983 
0 0 0 0.4022201116092556 0 0.4064590919598973 0 0.5170895110342394 0.8227282330906612 1.941681896177465 0.0470025893366252 0 0 0 0 0 0 4 1:0.07856742 2:-2.6320086 3:-0.90352533 4:-0.74639049 
3.054615038446054 1.372950706982359 1.329863146224901 0.6546254260769788 0.5090121687602425 0.6729582625984361 1.674019338830243 0.5853094710056896 0 0 0 0 0 0 0.2424786958938079 0 0 0 1:0.16511556 2:-2.8482435 3:-0.78429893 4:-0.86685671 
0 0 0.4155549428408898 0.4920070273035812 0.05597200524059616 0.561269879123615 1.286706495742893 0.5550674309141389 0 0.2538916742909435 0 0 0 0 0 0 0 0 1:0.69565217 2:-3 3:-0.91304348 4:-2.9565217 
0 0 0 0 0 0 0 0 1.964269764310764 0 0 0 0 0 0 0 0 0 1:0.65217391 2:-3 3:-1.1304348 4:-2.9130435 
-1.920004725999716 0 0 0.0528970495069585 0.2273217642216185 0 0 0 0 0.4772777218810355 0.542501943301129 0.3823364731991657 0.1187280624336971 0.1108650281922068 0 0.6534435482771059 0.1324447124466757 2.43278758602629 1:0.34782609 2:-2.9130435 3:-1.173913 4:-2.8695652 
0 0 0 0 0 0.6378931635092118 0.4203503968152537 0 0.5633680024120284 0 0 0 0 0 0 0 0 0 1:0.72319916 2:-3.0735964 3:-1.0847987 4:-2.8475967 5:-1.0395988 6:-0.31639963 
0 0 0 0 0.2379891326097053 0 0 0 0 0 0 0.1522927289492773 0.319012940301952 0.3530277147749644 0.4209320371764889 0 0 0 1:0.72011193 2:-3.2405037 3:-1.1701819 4:-3.1504897 
0 2.496047170325019 1.242110424371672 0.1162341901485432 0 0 0 0.353645865698707 0 0 0 0 0 0 0 0 0 0 1:0.67568075 2:-3.1982222 3:-1.1036119 4:-2.9279499 5:-1.0810892 6:-0.40540845 
0 0 0 0.2767910310173356 0.3016836567280485 0 0 0 0 0 0.2646621501529908 0.1425801995024581 0 0 0 0 0 0 1:0.71578981 2:-3.265791 3:-1.1631584 4:-2.9973698 5:-1.0736847 6:-0.40263177 
-1.134610312446338 0 0 0.1798936938350292 0.219956100677039 0 0 0.2680708694636257 0 0.6902876875093141 0.2665830068073788 0.4111905450321527 0.6465542095877739 0.6105353683271614 0.6643808243651048 0.6812437963688404 1.700590146557694 1.109295411694841 1:0.39476978 2:-2.9388417 3:-1.1843093 4:-2.6756618 5:-1.0527194 6:-0.21931654 
0 0 0 0.1737321467883115 0.5061900105084214 0 0 0 0 0.2332929593714686 0.421497181974243 0.4650994980520973 0.4527133753814843 0.449254756105749 0.4239578132422959 0.05879775538520895 0 0 1:1.0852547 2:-3.172283 3:-0.20870283 4:-3.2975047 5:-1.2939575 6:-2.7966179 
0 0 0 0.3166998117392972 0 0 0 0 0 0 0 0 0 0 0 0 0 0 1:1.0878325 2:-3.054299 3:-0.1882787 4:-3.0752188 5:-1.2551914 6:-2.6359019 
0 0 0 0 0 1.01392950973933 0 0 0.08944306366416803 0 0 0 0 0 0 0 0 0 1:1.1336879 2:-2.9811792 3:-0.33590752 4:-3.1071446 5:-1.2596532 6:-2.5612948 
-1.372950706982359 -2.496047170325019 2.514534939925166 0.7109375180115219 0.5049414971198106 0.2539034772263116 1.301046364524892 1.365221009241508 1.273993576921004 1.030921519606534 0.5960545447336817 0.5628163571034513 0.5645987837684238 0.5671520631086239 0.5976591208878758 1.010854422179361 1.114744119350011 1.352492142474107 1:0.91350028 2:-2.9065918 3:-0.33218192 4:-2.9896373 5:-1.2456822 6:-2.4913644 
-1.329863146224901 -1.657665367212562 0 0 0.4442994294052807 0 0 0 1.276000450264343 1.289749062557044 0.7898204498658363 0.5006842183643158 0.4712512400349685 0.5614700430575296 0.5714265326239025 1.073120374541001 1.091636552348447 1.309954086220213 1:0.81762356 2:-2.415706 3:-0.092911768 4:-2.5272001 5:-0.92911768 6:-2.1927177 7:-1.523753 8:-1.4494236 
0 0 0 0.936688316532642 0 1.231748219133755 1.307474857618039 2.697655078599527 0.02016969905490938 0 0 0 0 0 0 0 0 0 1:0.87623022 2:-2.4382058 3:-0.038096966 4:-2.5524967 5:-0.87623022 6:-2.209624 7:-1.5238786 8:-1.4476847 
0 0 0 0 0.144358147609427 0 0 0 0 0 0.005720826802114609 0.2049368780927977 0.3058965284623786 0.2154617081128481 0.4450489281723968 0 0 0 1:0.79056942 2:-2.5298221 3:-0.13834965 4:-2.6286433 5:-0.98821177 6:-2.2926513 7:-1.6206673 8:-1.5020819 
0 0 0 0.6670394238934114 0.4172204565471507 0 0 0 0 0 0.2220105729427088 0.3179149638318735 0.2352794548642257 0.2349705325110562 0.004517323572832557 0 0 0 1:0.90844538 2:-2.4883504 3:-0.078995251 4:-2.6463409 5:-0.86894776 6:-2.3698575 7:-1.6194026 8:-1.5009098 
0 0 -2.514534939925166 0 0 0 0 0 0 0 0 0 0 0 0 0 0 0 1:0.89799913 2:-2.4597367 3:-0.03904344 4:-2.5573454 5:-0.89799913 6:-2.2254761 7:-1.5226942 8:-1.4446073 
-0.7755673851859812 -0.8182160926930266 -0.793477235246195 -1.382064635911931 0.1891237458036466 0.9271323541702921 1.135412489092344 2.33760246472672 1.083944770665765 0.6388364027339736 0.2427822063078373 0.2172200972233112 0.1914657388164457 0.2022355951629513 0.2080528420452866 0.3424536192655165 0.3500319561428429 0.7373779487425345 1:1.8766999 2:-1.0781042 3:0.77863081 4:-2.5555063 5:-0.2795085 6:-2.6353658 7:-1.1579638 8:-2.2759978 9:-1.7569106 10:-1.3576127 
-0.2812781525002533 -0.299606899118421 -0.2494073688365245 -0.2216631045141222 0.4517022673469495 0 0 0 0.01732995867628354 0.3757743776786613 0.4623050043819413 0.48003375682348 0.4766967906718003 0.4723964256294524 0.4681499641098189 0.4375901592457219 0.4519645502680652 0.3154630501299474 1:1.7433435 2:-1.2678862 3:0.73299669 4:-2.7140688 5:-0.39621443 6:-2.8527439 7:-1.1886433 8:-2.5357723 9:-1.7829649 10:-1.5848577 
0 0 -0.1584848724564113 0 0 0 0 0 0 0 0 0 0 0 0 0 0 0 1:1.9568876 2:-1.1415178 3:0.7949856 4:-2.6295678 5:-0.44845342 6:-2.731489 7:-1.1007493 8:-2.405341 9:-1.7122767 10:-1.4268972 
0 0 0 0 0 0.0639023410157382 0 0 0 0 0 0 0 0.01282155863172594 0.02566913823516804 0 0 0 1:2.0122647 2:-1.0899767 3:0.85940471 4:-2.6201363 5:-0.46114399 6:-2.7249418 7:-1.0899767 8:-2.3895643 9:-1.8026538 10:-1.383432 
0 0 0 0 0.3721739861103556 0.2553343141543651 0.02740522502125404 0 0 0.227220524024796 0.3063662551468129 0.3273890473592244 0.3442745678218659 0.3230240696861857 0.3093139628589167 0.2372555484416942 0.2158655499752968 0 1:1.9666643 2:-1.1062487 3:0.94235999 4:-2.5402748 5:-0.24583304 6:-2.7041635 7:-1.0652765 8:-2.3763861 9:-1.6798591 10:-1.3930539 
-0.4259733055304921 -0.4057296303685903 -0.4068808667274576 -0.4089535225204091 -0.4436877662517043 0.6136098557860097 0.6993641998371695 0.4821991266867284 0.4712152696199682 0.7179150291132391 0.4153076743999997 0.3849645254493645 0.3866622696367902 0.3860917029567333 0.3860870862755384 0.3162407536096776 0.3886947063230582 0.3952848788759299 1:1.6213902 2:1.8773992 3:2.8801011 4:0.36267939 5:2.9014351 6:-0.89603144 7:2.3040808 8:-1.4507176 9:1.2373767 10:-1.9200674 
0 0 0 -0.0006093423782802974 0 0 0 0.06145006689542321 0 0 0 0.01490425938696811 0.01059645794760011 0.01071007267905161 0.01889483446974266 0.08712935234521457 0.01029205063713897 0.03926771028574294 1:1.6781035 2:1.854746 3:3.0470827 4:0.39744557 5:3.0470827 6:-0.97153361 7:2.428834 8:-1.5897823 9:1.3248186 10:-2.0313885 
-0.1589529825397675 -0.1763307995887023 -0.170976309647716 -0.16982908589497 -0.1653459026738947 0.008851614562801995 0.00513118591510222 0.1307038887746899 0.1138871389031455 0.1836621518272393 0.1715898897699053 0.1918248451300811 0.1713571664872725 0.1709550598562993 0.1714174323596292 0.2648067751672414 0.1698847433634044 0.1931236904577373 1:1.601979 2:1.9579743 3:2.9814609 4:0.48949358 5:2.9814609 6:-0.88998832 7:2.2249708 8:-1.5352299 9:1.2014842 10:-1.9579743 
-0.4231682471261827 -0.4608622295197149 -0.4332743312530584 -0.4264860827681991 -0.4039663303353526 0.3905570710061982 0.3121224115408429 0.3357422726917778 0.4231674192514358 0.3195845019298059 0.4203180447701358 0.4289100262763464 0.4398240968910833 0.4387553908823476 0.4304876330828206 0.3371507969996209 0.4381530332104237 0.384280234252257 1:1.6829881 2:1.9044339 3:3.0559521 4:0.4428916 5:3.0559521 6:-0.93007237 7:2.4359038 8:-1.5501206 9:1.3286748 10:-2.0815905 
0 0 0 0 0 -0.2846674948743242 0 0 0 0 0.255668248950046 0.274194205942182 0.2628648507007937 0.2463126555346762 0.2636528258283184 0.1756787097967435 0.007744344518663866 0 1:3.1732388 2:0.057695251 3:1.1250574 4:-3.230934 5:-0.92312401 6:-1.3269908 
-1.079417354558333 -1.199163042632827 -1.267832986965642 -1.231748219133755 -1.246369009340395 -0.4668403447409964 2.017698804272988 1.537659418867754 1.406975066453495 0.9434544668886744 0.485234116358951 0.449042549934752 0.4452842666815172 0.456000038935118 0.4549174468879355 0.6135189928981392 0.6892993562618766 1.069306207110709 1:2.9147672 2:0 3:0.99857765 4:-3.0766987 5:-0.91761189 6:-1.2954521 
0 0 0 0 0 -0.2615107017396893 0 0 0 0 0.2668395929241574 0.2879134404843249 0.2794304081174613 0.2882157979270795 0.2570077669984915 0.2241242622830007 0.3239183006412278 0 1:3.1324958 2:0.17086341 3:1.0536577 4:-3.1324958 5:-1.0251805 6:-1.1960439 
0 0 0 0 0 0 0 0 0 0.3573585766477798 0 0 0 0 0 0 0 0 1:2.9916056 2:0.10878566 3:1.0334638 4:-3.0459984 5:-0.97907093 6:-1.1966422 
0 0 0 0 0 0 0 0 0 0 0 0.009607505742616207 0.02076352816286511 0.01666700393653461 0.03175079150062265 0 0 0 1:3.1492908 2:0.057259833 3:1.1165668 4:-3.2351806 5:-1.030677 6:-1.3169762 
0 0 0 0 -0.3133099656015522 -0.00513118591510222 0 1.296461030351012 3.230789021043284 1.684462803426573 1.025319981177229 0.9681023442456581 0.8305566259755233 0.9549178669536421 0.7906620393944319 1.123731815949874 1.118218116329107 1.488094730197273 1:2.3334524 2:-1.3081475 3:0.42426407 4:-1.6263456 
0 0 0 0 0 -1.011486611378012 0 0 0 0 0 0 0 0 0 0 0 0 1:2.3928571 2:-1.3214286 3:0.5 4:-1.6071429 
-1.674019338830243 -1.707056892558147 -1.301046364524892 -1.307474857618039 0 0 0 0 0 0 0 0 0 0 0 0 0 0 1:2.3561028 2:-1.356544 3:0.42838233 4:-1.6421323 
0 0 0 0 -0.8495077485120455 0 0 0 0 0 0 0.0319436444480616 0.009687238491719067 0.05594027719440253 0.004898868280439849 0 0 0 1:2.362034 2:-1.359959 3:0.50103752 4:-1.6462661 
0 0 0 0 0 0 -2.017698804272988 0 0 0 0 0.02287604034430013 0.1695002864628038 0 0.2138901998835102 0 0 0 1:2.4285714 2:-1.3214286 3:0.46428571 4:-1.6428571 
0 0 0 0 0 -0.4927097019079219 -0.3235569327206885 0 0 0.124220126580691 0.4234192220485331 0.4592667120503737 0.4803961053573513 0.4776331958979788 0.4577365709859141 0.2678761718911446 0.2820348657533894 0 1:1.3954944 2:-0.30172852 3:0.67888916 4:-2.6024085 5:-0.49030884 6:-2.6024085 7:-1.4332105 8:-1.9989514 
0 0 0 0 0 -0.2087003492734621 0 0 0 0 0 0.1869848803374415 0.4579093516630421 0.2582944982384693 0.2576045826243056 0 0 0 1:1.3302697 2:-0.60812331 3:0.72214643 4:-2.6225318 5:-0.49410019 6:-2.6225318 7:-1.4062851 8:-2.0144085 
0 0 0 0 -2.33760246472672 0 0 0 0 0 0 0 0 0 0 0 0 0 1:1.3907669 2:-0.56382442 3:0.7517659 4:-2.5935923 5:-0.45105954 6:-2.5935923 7:-1.3531786 8:-1.9921796 
0 0 0 0 0 0 -1.214102486147066 0 0 0 0 0 0 0 0 0 0 0 1:1.3682273 2:-0.57009473 3:0.76012631 4:-2.5844294 5:-0.45607578 6:-2.5844294 7:-1.3682273 8:-1.9383221 
0 0 -1.365221009241508 -2.697655078599527 0 0 0 0 0 0 0.1429701727853518 0.1697413260737941 0 0.006019724238199918 0.006662434095660066 0.08626533332168873 0.2999877678097079 0 1:1.3333938 2:-0.60955145 3:0.68574539 4:-2.5905937 5:-0.53335752 6:-2.5905937 7:-1.4476847 8:-1.9810422 
0 0 0 0 0 0 0 0 0 0 0.005182889485897443 0 0.01244276239240874 0.1730909900307687 0.28655128760071 0.2519479696281824 0.201100337061929 0.008166061356539064 1:1.3172424 2:-0.56453245 3:0.71507443 4:-2.5215783 5:-0.52689695 6:-2.5215783 7:-1.4301489 8:-1.9570458 
-1.102398982039929 -0.7543765578298396 0 0 0 -0.3086853038672354 0 -1.296461030351012 1.178895473990577 1.182197775890954 0.4420469388985771 0.2051640583927486 0.05808740989860867 0.09257573584860507 0 0.4171312101636577 0.2409446098709876 1.089157607477213 1:1.332623 2:-0.55525958 3:0.74034611 4:-2.5171768 5:-0.48122497 6:-2.5171768 7:-1.3696403 8:-1.9619172 
0 -0.422407608246632 0 0 0 0 0 0 0 0 0 0 0 0 0 0 0 0 1:1.3172424 2:-0.56453245 3:0.67743894 4:-2.5592138 5:-0.52689695 6:-2.5592138 7:-1.4301489 8:-1.9570458 
-1.908636768118363 0 -0.08944306366416803 -1.048597738147329 0 0 0 0 0 0 0 0 0 0 0 0 0 1.873560368806453 1:2.1304348 2:-1.5217391 3:-1.4782609 4:-2.0434783 
0 0 0 0 0 0 -1.406975066453495 0 -1.174845986830788 0 0 0 0 0 0 0 0 0 1:2.1461267 2:-1.4593662 3:-1.4593662 4:-2.0173591 
0 0 0 0 0 0 0 0 0 0 0 0 0 0 0 0 1.366658173978764 0 1:2.1270706 2:-1.4325169 3:-1.5193361 4:-1.9968418 
0 0 0 0 -0.6460232746019848 -0.5384303121331544 0 -3.230789021043284 -0.004049487159788401 1.542845429638804 0.8311958027327151 0.7114105987279309 0.6483530567709506 0.6819834230218899 0.5797265615340315 1.239948280846628 0 0 1:2.1515519 2:-1.4200243 3:-1.4630553 4:-1.9363968 
0 -2.527637766722793 -1.273993576921004 -0.2475724111719232 -0.4552514547400632 -0.469839515641395 0 0 0 0 0.1967283243381298 0.325328685560375 0.3728353033529378 0.341314091953887 0.4427959317244107 0 0 0 1:2.2582424 2:-1.6383327 3:-1.505495 4:-2.1696839 
-0.5291139949818957 -0.5749480641007597 -0.5744599179425179 -0.5590642468179329 -0.5829184783584601 -0.590808580008069 -0.5403758684433824 -0.4035122155732727 -0.5455903309794666 -0.4885374902135565 2.916152777249728 1.932279778743372 0.9354385657152008 0.9548491761923997 0.62687078679284 0.9615786221279073 0.7514100223554004 0.663780808368206 1:-2.2005728 2:0.60015623 3:-2.2005728 4:0.90023434 
-1.412567901195569 -0.8465090195805336 -0.689754561035485 -0.7306848157391114 -0.6589128260789708 -0.6303531028622152 -0.7604371750930718 -1.280950587853301 -0.7608275714921783 -1.054307939425248 0.917961395459714 0.3831571936125401 0.5404238166287092 0.5651404463937962 0.609896730741825 0.981357674961942 0.7669483748681933 1.340986924571286 
0 0 -0.0005257999521699239 0 0 -0.537690699885579 -0.555546383163801 0 0 0 -3.834114172709442 0 0 0.07493909361011382 0.5005224625108384 0 0 0 1:-2.9473684 2:-0.31578947 3:-0.73684211 4:1 
-1.215315532730948 -0.8598222852123574 -0.6150475851205441 -0.6884516821982836 -0.1430349886313738 0 0 -0.9076918818010712 -0.6539982889101223 -0.831307850297403 0 0 0 0 0.005405683771518002 1.476159542839003 1.026548646226475 1.306447991617099 1:-2.9593905 2:-0.36343392 3:-0.72686784 4:0.9864635 
0 0 0 0 -0.4058823986835836 -0.0006188996354868217 0 0 0 0 0 0 0 0 0 0 0 0 1:-2.9473684 2:-0.31578947 3:-0.73684211 4:1.0526316 
0 -0.2139248150491413 -0.4019783416352106 -0.3291001674123763 -0.4625360785216341 -0.4689060094189751 -0.4521955750693534 -0.1176280993761578 -0.3596209343082371 -0.1966162767734419 0 1.910664243660821 1.267556770637547 1.192631539422278 0.5214042860699928 0 0.1237514685004687 0 1:-3.1862064 2:-0.37172408 3:-0.90275847 4:1.0089654 
0 -0.3936800676904816 -0.4969087967382336 -0.4875313777983843 -0.5099409123383922 -0.5099935268180732 -0.5074124829337701 -0.4715880947762717 -0.5020866401420713 -0.4224557551443029 0 0 1.784663147055285 0.6692274496906858 0.5119521617114037 0 0 0 1:-3.5629467 2:-0.96708554 3:-3.741094 4:0.43264353 5:-1.0179848 6:1.0179848 
-1.154952125640955 -0.6947198789925721 -0.531007058417315 -0.5360046824906026 -0.5147019890676232 -0.510610129424687 -0.5133452191701051 -0.5513339342617481 -0.5190703367122868 -0.6142835291440031 -2.315436972355912 -1.910664243660821 0 1.067993022456537 0.5783545261854413 1.534822478365764 1.452297485489686 1.270368602241312 1:-3.1 2:-1 3:-3.2 4:0.4 5:-0.6 6:1 
0 0 0 0 0 0 0 0 0 0 0 0 1.25412114139355 0 0 0 0 0 1:-3.5209354 2:-1.071589 3:-3.6995336 4:0.4082244 5:-0.96953294 6:1.020561 
0 0 0 0 0 0 0 0 0 0 0 0 0 0 0 0 0.04234823873985603 0 1:-3.15 2:-1.05 3:-3.275 4:0.375 5:-0.65 6:1 
0 0 0 0 0 0 0 0 0 0 0 0 -3.038784288448835 0 0 0 0 0 1:-3.0358588 2:-1.3085598 3:-3.1928859 4:-0.026171196 5:-2.7741468 6:1.0991902 
-1.097263241643701 -0.9394355566666561 -0.5767523425313335 -0.5813493651093709 -0.514364807496789 -0.5068434445018972 -0.5101968749053999 -0.5687349315119338 -0.5205270746858343 -0.6710284324033791 -1.47586238234391 -1.267556770637547 0 2.202548562167944 0.9886741080196108 1.2370256184148 1.699595048353297 1.157362970969245 1:-2.9447143 2:-1.3200443 3:-3.1224125 4:-0.050770935 5:-2.7416305 6:1.0154187 
0 -0.1448596556567668 -0.4405598166185747 -0.4310778582522019 -0.4980722898133229 -0.5015965464608491 -0.4981461787572375 -0.4410092194181123 -0.4883085546255768 -0.3501599277205092 0 0 0 0 0.1863905079086765 0 0 0 1:-3.1710496 2:-1.3668317 3:-3.4170793 4:-0.027336634 5:-2.9523565 6:1.1481386 
0 0 0 0 0 0 0 0 0 0 0 0 0 -0.2647734164652786 0 0 0 0 1:-2.5633286 2:-0.77306736 3:-2.7260796 4:0.16275102 5:-2.4005776 6:0.93581838 7:-1.7088857 8:1.5461347 
-0.02058818015780879 -0.6840697451625695 -0.5428863051534034 -0.5387756525881465 -0.4229615697632017 -0.4280656471787709 -0.4030300760317338 -0.4256248155815222 -0.4271825553977725 -0.4710252775544806 0 0 0 -1.286356604637126 1.448290686837193 0 1.095848028040493 0 1:-2.4873291 2:-0.89706952 3:-2.6912086 4:0.16310355 5:-2.4465532 6:0.85629363 7:-1.7125873 8:1.5494837 
0 0 -0.0007073915082123407 -0.04017934163131458 -0.1400258768294981 -0.1439428170508451 -0.05549285395112147 -0.1416433466756314 -0.1269608153777888 -0.1412325518521366 -1.000208414789822 -1.267570633032392 -1.737220472147222 -0.6514185410655386 0 1.200434081163418 0 0 1:-2.496026 2:-0.7649112 3:-2.65706 4:0.32206787 5:-2.3349921 6:0.92594513 7:-1.6505978 8:1.5298224 
-1.069325577800521 0 0 0 0 0 0 0 0 0 0 0 0 0 0 0 0.2864006960026092 1.137554943779213 1:-2.4978218 2:-0.80574898 3:-2.6589716 4:0.1611498 5:-2.3366721 6:0.92661133 7:-1.6920729 8:1.5309231 
0 0 0 0 0 0 -0.07904016806219893 0 0 0 0 0 0 0 0 0 0 0 1:-2.5744099 2:-0.8304548 3:-2.6989781 4:0.29065918 5:-2.4498417 6:0.8304548 7:-1.7024323 8:1.5778641 
0 -0.08431219996942438 0 0 0 0 0 0 0 0 0 0 0 0 0 0 0 0 1:-2.5051783 2:-0.76771593 3:-2.6263966 4:0.14142136 5:-2.3435539 6:0.92934034 7:-1.6566502 8:1.575838 
0 -0.3060461661623387 -0.472813122552757 -0.4329472894619728 -0.4474902025176155 -0.434503762144816 -0.4696323982883541 -0.4435899818908911 -0.4534707734784604 -0.4110396855691597 -0.5197812077963737 0 0 0 0 0 0 0 1:-2.5243561 2:-0.56096802 3:-2.624529 4:0.16027658 5:-2.4041487 6:0.88152118 7:-1.6829041 8:1.5626966 
0 0 0 0 0 0 0 0 0 0 0 0 0 0 0 0.231623577176981 0 0 1:-1.3579981 2:-2.0604109 3:-2.9969613 4:-0.79606784 5:-3.0437888 6:0.30437888 7:-2.7159962 8:1.1238605 9:-1.8262733 10:1.7794458 
0 0 -0.2484834073411151 -0.2559509532513649 -0.4373764675110273 -0.4345451813320784 -0.4391408517115679 -0.3969023138943682 -0.4206477009191852 -0.2684604154883778 -0.1394467688649191 -0.1705103725925119 0 0 0 0 0 0 1:-1.3757042 2:-2.0872753 3:-3.0360368 4:-0.80644728 5:-3.1071939 6:0.28462845 7:-2.7988464 8:0.99619958 9:-1.8026469 10:1.8500849 
-0.8565825166709369 -0.8830329731508991 -0.4382092446159191 -0.5057888449144429 -0.0843816583776657 -0.06498783657435124 -0.06992701896867606 -0.1318916177289717 -0.1393347916949126 -0.3455613887089377 -0.2437991181861404 -0.1873095773167998 -0.04212918024787582 0 0 0.6905747535341655 1.206212317402723 0.926086114829818 1:-1.3556441 2:-2.1035857 3:-2.8982736 4:-0.93492697 5:-3.0385126 6:0.25710492 7:-2.687915 8:1.0517928 9:-1.8231076 10:1.7763612 
-0.1965047387479495 -0.2022798883906946 -0.1801785471848328 -0.2592529862033241 -0.2867332014614985 -0.2730107799467482 -0.2969460368461884 -0.4355294039203974 -0.2668955669334593 -0.4085006890611266 -0.4453075909676544 -0.3882157792115223 -0.2744784140340686 -0.4660215942200973 -0.3861015684651212 0 0 0.1472021923571023 1:-1.4018079 2:-1.9625311 3:-2.8737063 4:-0.93453863 5:-3.0839775 6:0.42054238 7:-2.6634351 8:1.1681733 9:-1.8690773 10:1.7756234 
0 0 -0.1547457349883046 0 -0.2026945798989988 -0.234343188334553 -0.2013149236889358 -0.04512777201464469 -0.1816768157590326 0 0 0 0 0 0 0 0 0 1:-1.461354 2:-2.0270394 3:-2.9462783 4:-0.91923882 5:-3.1584103 6:0.42426407 7:-2.6870058 8:1.2256518 9:-1.8856181 10:1.7913372 
0 0 0 0 0 0 0 0 0 0 -0.4082140395159513 -0.2812967032315153 -0.7736990936149005 -0.70904302170819 -1.062189118372071 0.1437905866452417 0 0 1:-1.4279961 2:-1.9347044 3:-2.9941854 4:-0.82915905 5:-3.0402498 6:0.29941854 7:-2.7638635 8:1.059481 9:-1.8425757 10:1.7504469 
0 0 0 0 0 0 0 0 0 0 0 0 0 0 0 0 2.401127543642512 0 1:-0.65816711 2:-2.501035 3:-2.1938904 4:0.74592272 
0 0 0 0 0 0 0 0 0 0 0 0 -1.467423521034651 -1.182250016832946 0 0 0 0 1:-0.71136593 2:-2.4897808 3:-2.1340978 4:0.7558263 
-3.207802179984888 -1.194710676155331 -0.746293247602166 -0.9012187067056773 -0.5940483109394783 0 -0.6289182363740327 -1.123731815949874 -0.7543210426963078 -1.239948280846628 0 0 0 0 0 0 0 4 1:-0.65155836 2:-2.4324846 3:-2.0849868 4:0.73843281 
0 -0.1399766684906156 -0.3233589299624034 -0.1719016678353238 -0.4225487649953726 -0.4900767334690128 -0.3844037286038507 0 -0.2688996423083658 0 0 0 0 0 0 -0.4277538945474116 0 0 1:-0.58848235 2:-2.6255366 3:-2.2181258 4:0.76955384 
0 0 0 0 -0.0007022510180816241 -0.5152509446527416 0 0 0 0 -1.942936297089849 -1.476159542839003 -0.0673989573311129 -0.05477560158185375 -1.200434081163418 -0.6382350228089765 0 0 1:-0.69499559 2:-2.4324846 3:-2.0849868 4:0.73843281 
0 0 0 0 -0.1355103985430941 -0.1744053841520266 -0.03758792819741406 0 -0.07007620991287893 0 0 0 0 0 0 -0.4062135828571194 0 0 1:-0.41873914 2:-2.5124348 3:-2.931174 4:-0.81130708 5:-1.6749566 6:0.57576631 
-2.175389248801556 0 0 -0.1023465590794174 0 0 0 -0.6109957629161581 0 -1.329126822968104 0 0 0 0 0 0 0 2.723093948047471 1:-0.40406102 2:-2.4243661 3:-2.8031733 4:-0.78286822 5:-1.4647212 6:0.70710678 
0 0 0 0 0 -0.1896685189026919 0 0 0 0 0 0 0 0 0 0 0 0 1:-0.47368421 2:-2.4736842 3:-2.9473684 4:-0.73684211 5:-1.5263158 6:0.84210526 
0 0 0 -0.1561404816499565 -0.4236129775040972 -0.3439978474307231 -0.4646250478404742 0 -0.4850523793670232 0 -0.6328802234077313 -0.4559883670094085 -1.065064403543063 -1.699595048353297 -1.382248724043102 -0.7999987345456037 0 0 1:-0.50767308 2:-2.2845289 3:-2.8937366 4:-0.78689328 5:-1.6245539 6:0.6092077 
0 0 -1.085207422410783 -0.5500148541239538 0 0 0 0 0 0 0 0 0 0 0 0 0 0 1:-0.40714208 2:-2.4937453 3:-2.9008873 4:-0.86517693 5:-1.5776756 6:0.61071313 
0 0 0 0 0 0 0 0 0 0 -0.8854781738158624 -0.694311747717535 -0.429581320686479 0 0 0 -2.401127543642512 0 1:-0.45690577 2:-2.3860635 3:-2.8175856 4:-0.73612597 5:-1.4722519 6:0.76150962 
0 -1.83303485900437 -0.02953669693922821 -0.2831346574951197 -0.4587386803390137 -0.2989527830485837 -0.51874902538388 -0.5072223534129484 -0.4689389912161117 -0.03753135101065918 0 0 0 0 0 0 0 0 1:-0.36664796 2:-2.5141574 3:-2.7760488 4:-0.83805248 5:-1.5189701 6:0.7856742 
0 0 0 0 0 0 0 0 0 0 -0.1761896805827111 0 0 0 0 0 0 0 1:-0.36265586 2:-2.4025951 3:-1.3146275 4:-0.95197164 
0 0 0 0 0 0 0 0 0 0 0 0 0 -0.1398934144995075 0 0 0 0 1:-0.37001016 2:-2.4513173 3:-1.3412868 4:-0.97127667 
-4 -3.542082997721131 -1.352492142474107 -1.309954086220213 -0.696268284454566 -0.5059159133980782 -0.8433253463138939 -1.488094730197273 -0.8983290145914599 -1.873560368806453 0 0 0 0 -0.1024761740549936 -0.4434456936576403 0 0 1:-0.27881041 2:-2.5092937 3:-1.2081784 4:-1.16171 
-4 0 0 0 0 0 0 0 0 0 0 0 0 0 0 0 0 0 1:-0.27794463 2:-2.5015017 3:-1.2507508 4:-1.0654544 
-4 0 0 0 0 0 0 0 0 0 0 0 0 0 0 0 0 0 1:-0.32050798 2:-2.4724902 3:-1.3736056 4:-0.91573709 
-4 0 0 0 0 0 0 0 0 0 0 0 0 0 0 0 0 0 1:-0.2769372 2:-2.4462786 3:-1.3385298 4:-0.92312401 
-4 0 0 0 -0.3565727144179159 -0.506040600473589 -0.2259808607968149 0 -0.198994654242292 0 -1.82857805235678 -1.306447991617099 -1.270368602241312 -1.017469556469737 -1.03507876972422 -0.6298426135292799 -4 -2.723093948047471 1:-0.32050798 2:-2.4267033 3:-1.4193925 4:-0.68680282 
-1.791421852833146 0 0 0 0 0 0 0 0 0 0 0 0 0 0 0 0 0 1:-0.32050798 2:-2.4724902 3:-1.3278188 4:-1.0073108 
